1.0 1.0 1.0 1.0 1.0 1.0 1.0 1.0
8.008577 12.642872 22.34627 25.048513 11.508323 3.8830197 5.276826 14.160573
3.2819154 13.533674 6.3169556 13.017574 7.4888535 -9.268513 0.61129856 1.6858582
-3.5519705 -14.240644 7.320185 -0.8807628 6.700843 10.240496 -6.7206016 -7.6582828
-27.797787 -2.677984 -1.8476335 13.637584 -12.1252365 -2.2063904 -10.302335 -9.623295
-2.9920845 -3.0875723 -4.185953 -5.0318327 -21.226494 -8.017271 -9.543327 -13.042521
-15.5402355 24.759895 -12.465248 15.8079 2.004916 25.980013 -10.581669 -28.382784
1.0 1.0 1.0 1.0 1.0 1.0 1.0 1.0


18.178324 5.8816266 8.664116 -3.635031 25.178988 10.3033495 17.940887 7.1958637
-2.0093043 17.60536 26.01187 23.235405 12.07584 14.4063225 7.4399633 17.20288
16.644667 14.549755 4.0141306 17.727137 5.384719 26.560724 30.80459 14.101095
5.3715954 6.154967 8.981711 0.42876115 -0.14977658 -7.878344 -5.212058 -0.593959
6.190433 3.8484614 -1.7953376 -5.9559083 12.142134 5.9396696 -10.475221 2.0699043
-7.1395793 -6.3610835 -3.7279036 -12.02005 -1.536861 -8.268659 -4.781762 -14.093386
-4.110511 0.033864975 -3.9751005 -3.3088028 -2.0689456 -15.762121 -11.297871 2.2947617
-10.422732 -0.26311955 -6.3258915 -13.811338 -5.5435843 -7.63743 -11.347929 6.522917


-5.955106 -2.2656999 -3.566503 -2.0694551 9.160062 0.2764374 15.253149 -8.131719
18.912832 -2.3535795 -8.313912 11.819478 -7.7070527 1.9207684 7.16594 -0.29974288
-8.322639 17.741772 1.297729 7.842254 -0.3546535 6.5527325 -4.4593544 5.1924567
3.8678367 6.2492332 13.1064415 1.1931314 -2.2504854 2.1237087 1.8296598 2.348896
6.832925 0.37536138 -3.9737685 -1.2937722 -1.2261332 -13.161813 4.9885006 0.60342216
2.2050006 5.4069023 8.732979 -8.527999 8.214103 -19.586334 -18.857693 12.8564005
-3.555776 -5.1781483 3.86358 5.4811606 -3.7268982 6.5789576 -8.518907 -3.8444757
4.1495647 8.493787 0.8386785 -8.446067 4.370783 7.6362863 8.239846 -7.565576


26.309269 31.259985 15.712637 27.790121 28.714771 4.8839803 21.851868 23.021196
12.1007 25.016914 12.587633 25.195 17.775223 23.244152 27.12209 16.541336
7.7448335 26.098553 13.241485 13.118403 13.636202 4.929878 16.18378 8.664067
16.27517 6.8393383 31.823107 14.417511 9.445595 22.706654 2.8702183 2.0832682
23.996395 2.570896 19.69678 0.5857966 11.494021 1.7042075 -1.0903292 -14.323166
0.46606588 10.058811 12.150202 1.3948262 5.159606 6.429748 2.7545235 14.230817
-2.9303515 8.957117 7.3596606 -0.8918352 -15.04139 0.9927683 2.53238 -8.653784
21.575333 17.258318 21.387463 1.7311027 -11.55669 18.074442 2.631297 6.653756


16.895315 21.135891 20.018875 20.814024 30.358944 12.792533 14.673788 17.670214
25.813175 28.606934 19.23104 10.914106 33.012486 26.01884 22.390306 29.29514
29.068916 24.822206 7.6301365 26.254286 35.336338 15.912843 18.412006 16.610533
8.288552 23.092485 15.002521 14.970836 15.630508 18.504501 23.437567 20.762688
6.2092233 20.80361 20.167572 15.722877 5.405726 11.116547 8.426892 25.67068
11.6183 7.708066 13.228849 8.715532 14.4158745 20.490517 15.432882 16.33329
5.1004095 4.7217693 1.6453841 19.764336 12.772915 22.698298 2.6332545 5.4880085
-4.301944 -4.534242 2.1534774 0.043418884 -15.0591955 6.2869873 0.006129265 3.1988392


5.010168 7.74446 2.710887 3.8151383 3.470711 4.748297 5.227952 2.6704357
21.095638 19.579163 9.043333 1.8620325 5.6112123 21.048439 7.083706 9.582619
10.202606 17.12794 9.143901 2.4614098 6.4414153 6.667982 0.8160859 0.20716122
7.8228507 6.9827504 2.6311755 2.4132915 -1.7217157 -5.6027336 2.2093062 -0.3063653
4.0022125 -0.3875909 -10.156935 2.8099892 -1.9612961 -6.7882442 -3.6990104 -5.6783357
7.1296506 -7.9458413 -12.685025 -5.770091 -5.653134 -20.77007 -1.0017741 -2.9340732
9.859559 5.4588923 -4.0000143 -17.657927 -3.7018137 -11.3443575 -10.493967 5.9603853
5.1914554 0.03179574 -5.134054 2.0123165 -3.8784728 -6.605004 -17.38744 -10.622975